{"learner":{"attributes":{"best_iteration":"0","best_score":"0.9246707011593348"},"feature_names":["s_dept","s_year","s_gpa","s_cs_grade","s_pref_diff","s_num_past","p_dept","p_diff","p_cat","p_avg_grade","p_times_sel","skill_match","dept_match","diff_match","content_score","collab_score","skill_overlap"],"feature_types":[],"gradient_booster":{"model":{"cats":{"enc":[],"feature_segments":[],"sorted_idx":[]},"gbtree_model_param":{"num_parallel_tree":"1","num_trees":"21"},"iteration_indptr":[0,1,2,3,4,5,6,7,8,9,10,11,12,13,14,15,16,17,18,19,20,21],"tree_info":[0,0,0,0,0,0,0,0,0,0,0,0,0,0,0,0,0,0,0,0,0],"trees":[{"base_weights":[2.1297691E-2,-9.968591E-2,6.278006E-1,-5.878876E-1,7.066474E-1,3.883059E-2,-7.899162E-1,5.9239024E-1,8.549041E-1,-4.9730772E-1,-9.413039E-2,-8.933991E-3,6.1527145E-1,5.78789E-1,8.755048E-2,-1.4779205E-2,-8.2326196E-2,4.140354E-1,6.793374E-1,4.1274732E-1,7.564106E-2,7.485855E-3,5.293336E-2,5.1287342E-2,7.329481E-2,6.352386E-2,1.1287488E-2],"categories":[],"categories_nodes":[],"categories_segments":[],"categories_sizes":[],"default_left":[0,0,0,0,0,0,0,0,0,0,0,0,0,0,0,0,0,0,0,0,0,0,0,0,0,0,0],"id":0,"left_children":[1,-1,3,5,7,-1,9,11,13,15,-1,-1,17,19,-1,-1,-1,21,23,25,-1,-1,-1,-1,-1,-1,-1],"loss_changes":[5.793632E2,0E0,5.679355E1,7.503007E0,8.71228E0,0E0,7.3810387E-1,5.033905E0,7.01355E-1,1.2323227E0,0E0,0E0,3.5522308E0,1.5507126E-1,0E0,0E0,0E0,2.9029331E0,1.5524216E0,7.028067E-1,0E0,0E0,0E0,0E0,0E0,0E0,0E0],"parents":[2147483647,0,0,2,2,3,3,4,4,6,6,7,7,8,8,9,9,12,12,13,13,17,17,18,18,19,19],"right_children":[2,-1,4,6,8,-1,10,12,14,16,-1,-1,18,20,-1,-1,-1,22,24,26,-1,-1,-1,-1,-1,-1,-1],"split_conditions":[1E0,-9.968591E-2,1.8172948E-1,3.9071038E-1,6.208883E-1,3.883059E-2,1E0,4.72973E-2,3.442623E-1,4E-1,-9.413039E-2,-8.933991E-3,1E0,7.956832E-1,8.755048E-2,-1.4779205E-2,-8.2326196E-2,2.3333333E-1,3.7917694E-1,6.432676E-1,7.564106E-2,7.485855E-3,5.293336E-2,5.1287342E-2,7.329481E-2,6.352386E-2,1.1287488E-2],"split_indices":[12,0,15,2,15,0,4,9,2,10,0,0,6,15,0,0,0,10,15,15,0,0,0,0,0,0,0],"split_type":[0,0,0,0,0,0,0,0,0,0,0,0,0,0,0,0,0,0,0,0,0,0,0,0,0,0,0],"sum_hessian":[9.362635E2,3.492154E2,5.870481E2,3.5285126E1,5.5176294E2,5.807332E0,2.9477793E1,3.1481464E2,2.3694833E2,1.1737198E1,1.7740595E1,9.986913E0,3.0482773E2,1.8808174E1,2.1814015E2,6.5132966E0,5.2239013E0,7.578974E1,2.2903798E2,1.17298155E1,7.0783596E0,1.9865946E1,5.5923798E1,5.8822617E1,1.7021536E2,5.900261E0,5.8295546E0],"tree_param":{"num_deleted":"0","num_feature":"17","num_nodes":"27","size_leaf_vector":"1"}},{"base_weights":[-3.2044034E-2,-9.1859795E-2,2.2199489E-1,4.1376043E-2,4.336079E-1,-6.476859E-1,1.0838063E-1,4.8139563E-1,-1.206998E-1,-7.503085E-1,-1.395152E-1,-4.0804854E-1,1.651167E-1,4.013582E-1,6.383803E-1,-2.6549524E-1,8.111508E-2,-4.477234E-1,-9.171608E-2,-3.095752E-2,9.316779E-3,2.993985E-1,-7.1146256E-1,2.2856054E-1,-8.7687396E-2,4.456537E-2,4.6037236E-1,6.952506E-1,1.3150814E-1,-1.1459483E-1,-8.774518E-2,-8.726269E-2,2.7587859E-2,6.951697E-2,-8.17573E-2,-9.667431E-2,8.952056E-4,2.477083E-2,-4.4385266E-2,-2.6917396E-2,4.749004E-2,7.717126E-2,-1.120391E-2,5.799448E-2,3.3542838E-2,5.0611317E-2,8.396449E-2,-5.434819E-2,7.574088E-2,-3.5762027E-2,8.3769046E-2],"categories":[],"categories_nodes":[],"categories_segments":[],"categories_sizes":[],"default_left":[0,0,0,0,0,0,0,0,0,0,0,0,0,0,0,0,0,0,0,0,0,0,0,0,0,0,0,0,0,0,0,0,0,0,0,0,0,0,0,0,0,0,0,0,0,0,0,0,0,0,0],"id":1,"left_children":[1,-1,3,5,7,9,11,13,15,17,19,21,23,25,27,29,-1,31,-1,-1,-1,33,35,37,39,41,43,45,47,49,-1,-1,-1,-1,-1,-1,-1,-1,-1,-1,-1,-1,-1,-1,-1,-1,-1,-1,-1,-1,-1],"loss_changes":[4.216139E2,0E0,5.554058E1,3.631829E1,1.7830765E1,3.440752E0,2.1068043E1,7.3897247E0,7.416856E0,2.360443E0,5.689074E-1,1.5525243E1,1.0418131E1,8.596336E0,5.7688446E0,4.176572E0,0E0,7.2601423E0,0E0,0E0,0E0,1.0263451E1,9.333851E0,6.761463E0,1.341011E1,6.9587064E0,4.985718E0,4.4917374E0,9.815702E0,9.346324E0,0E0,0E0,0E0,0E0,0E0,0E0,0E0,0E0,0E0,0E0,0E0,0E0,0E0,0E0,0E0,0E0,0E0,0E0,0E0,0E0,0E0],"parents":[2147483647,0,0,2,2,3,3,4,4,5,5,6,6,7,7,8,8,9,9,10,10,11,11,12,12,13,13,14,14,15,15,17,17,21,21,22,22,23,23,24,24,25,25,26,26,27,27,28,28,29,29],"right_children":[2,-1,4,6,8,10,12,14,16,18,20,22,24,26,28,30,-1,32,-1,-1,-1,34,36,38,40,42,44,46,48,50,-1,-1,-1,-1,-1,-1,-1,-1,-1,-1,-1,-1,-1,-1,-1,-1,-1,-1,-1,-1,-1],"split_conditions":[1E0,-9.1859795E-2,5.6023556E-1,1.89854E-1,1.72E2,7.702703E-1,2.1E1,6.502732E-1,7.972973E-1,2.7027026E-1,9.361372E-2,9E0,5.1015174E-1,1.6216215E-1,1.56E2,4E0,8.111508E-2,1.04E2,-9.171608E-2,-3.095752E-2,9.316779E-3,5.175E-1,5.2908415E-1,8.716216E-1,1.57E2,3.3783782E-2,8.5E1,6E1,4E0,2E0,-8.774518E-2,-8.726269E-2,2.7587859E-2,6.951697E-2,-8.17573E-2,-9.667431E-2,8.952056E-4,2.477083E-2,-4.4385266E-2,-2.6917396E-2,4.749004E-2,7.717126E-2,-1.120391E-2,5.799448E-2,3.3542838E-2,5.0611317E-2,8.396449E-2,-5.434819E-2,7.574088E-2,-3.5762027E-2,8.3769046E-2],"split_indices":[12,0,15,15,8,9,8,2,9,9,15,8,15,9,8,6,0,8,0,0,0,3,15,9,8,9,8,8,1,6,0,0,0,0,0,0,0,0,0,0,0,0,0,0,0,0,0,0,0,0,0],"split_type":[0,0,0,0,0,0,0,0,0,0,0,0,0,0,0,0,0,0,0,0,0,0,0,0,0,0,0,0,0,0,0,0,0,0,0,0,0,0,0,0,0,0,0,0,0,0,0,0,0,0,0],"sum_hessian":[1.8698011E3,4.1595712E2,1.453844E3,7.8526337E2,6.685807E2,6.8691795E1,7.165716E2,6.158033E2,5.2777416E1,5.6590374E1,1.2101422E1,7.0144066E1,6.464275E2,4.1063678E2,2.0516647E2,4.639131E1,6.386104E0,2.1636133E1,3.495424E1,7.04892E0,5.0525026E0,2.095907E1,4.9184998E1,5.171378E2,1.2928969E2,5.876998E1,3.5186682E2,1.8395773E2,2.1208729E1,3.829816E1,8.09315E0,1.3588898E1,8.047235E0,1.5820594E1,5.1384773E0,3.616628E1,1.3018718E1,5.0357816E2,1.3559652E1,9.828348E1,3.100621E1,9.83142E0,4.8938564E1,1.7752852E2,1.7433829E2,8.189013E1,1.0206761E2,1.0190692E1,1.1018038E1,3.1092703E1,7.2054586E0],"tree_param":{"num_deleted":"0","num_feature":"17","num_nodes":"51","size_leaf_vector":"1"}},{"base_weights":[2.0994963E-2,-2.7969541E-2,2.957561E-1,-8.876594E-2,-1.4611254E-2,2.9911859E-2,4.0218717E-1,-6.227902E-2,1.332024E-1,3.832171E-1,-2.3478028E-1,5.4170674E-1,1.4440508E-1,6.658041E-2,-1.4859182E-1,2.6488528E-1,-3.251081E-2,8.696099E-2,8.433318E-2,-8.4998965E-2,-5.317476E-2,7.439946E-1,3.2461083E-1,-1.2900376E-1,3.5357937E-1,-8.613582E-2,2.024698E-1,-1.8396951E-1,1.2898955E-1,4.057852E-1,-2.3228161E-1,-2.881014E-1,2.5134286E-1,3.8940826E-1,-4.732803E-2,-6.2569726E-1,2.3902789E-1,8.2170956E-2,3.8733765E-1,-4.367403E-2,4.7160855E-1,-8.8094436E-2,2.3146921E-1,6.2411463E-1,-1.3554539E-1,-4.9554177E-2,1.042116E-2,2.9885933E-2,-1.8110504E-2,-6.2449113E-4,-2.2943158E-2,2.8123766E-2,-8.3936855E-2,2.3801099E-3,4.6956163E-2,2.8615275E-2,-6.878255E-2,-5.1861435E-2,1.653432E-5,7.088263E-2,-3.5393678E-3,7.826187E-2,-2.2153996E-2,-2.796307E-2,-8.1688754E-2,4.844857E-2,-4.5895472E-2,-1.404988E-2,7.884782E-2,8.219863E-2,1.774391E-2,5.823058E-2,-1.0299521E-2,2.0659233E-2,7.5498775E-2,6.025198E-2,-6.389815E-2],"categories":[],"categories_nodes":[],"categories_segments":[],"categories_sizes":[],"default_left":[0,0,0,0,0,0,0,0,0,0,0,0,0,0,0,0,0,0,0,0,0,0,0,0,0,0,0,0,0,0,0,0,0,0,0,0,0,0,0,0,0,0,0,0,0,0,0,0,0,0,0,0,0,0,0,0,0,0,0,0,0,0,0,0,0,0,0,0,0,0,0,0,0,0,0,0,0],"id":2,"left_children":[1,3,5,-1,7,9,11,13,15,17,19,21,23,25,27,29,31,-1,33,-1,35,37,39,41,43,45,47,49,51,53,55,57,59,61,-1,63,65,-1,67,-1,69,-1,71,73,75,-1,-1,-1,-1,-1,-1,-1,-1,-1,-1,-1,-1,-1,-1,-1,-1,-1,-1,-1,-1,-1,-1,-1,-1,-1,-1,-1,-1,-1,-1,-1,-1],"loss_changes":[2.3392717E1,1.6826212E1,7.386011E0,0E0,1.0237207E1,7.2624307E0,6.595236E0,1.2249125E1,7.757948E0,4.675662E0,4.8043795E0,4.966072E0,3.9252357E0,9.188189E0,6.5041046E0,1.3962835E1,1.1490156E1,0E0,3.8971465E0,0E0,6.0986204E0,1.2690735E0,6.9673414E0,8.335203E0,5.2525277E0,1.6312838E1,8.724367E0,4.7060146E0,1.1208387E1,3.7055092E0,1.0662199E1,5.5961742E0,9.916344E0,3.785817E0,0E0,4.777608E-1,4.336585E0,0E0,2.9596076E0,0E0,5.0316353E0,0E0,2.5507212E0,1.1258745E0,5.7640815E0,0E0,0E0,0E0,0E0,0E0,0E0,0E0,0E0,0E0,0E0,0E0,0E0,0E0,0E0,0E0,0E0,0E0,0E0,0E0,0E0,0E0,0E0,0E0,0E0,0E0,0E0,0E0,0E0,0E0,0E0,0E0,0E0],"parents":[2147483647,0,0,1,1,2,2,4,4,5,5,6,6,7,7,8,8,9,9,10,10,11,11,12,12,13,13,14,14,15,15,16,16,18,18,20,20,21,21,22,22,23,23,24,24,25,25,26,26,27,27,28,28,29,29,30,30,31,31,32,32,33,33,35,35,36,36,38,38,40,40,42,42,43,43,44,44],"right_children":[2,4,6,-1,8,10,12,14,16,18,20,22,24,26,28,30,32,-1,34,-1,36,38,40,42,44,46,48,50,52,54,56,58,60,62,-1,64,66,-1,68,-1,70,-1,72,74,76,-1,-1,-1,-1,-1,-1,-1,-1,-1,-1,-1,-1,-1,-1,-1,-1,-1,-1,-1,-1,-1,-1,-1,-1,-1,-1,-1,-1,-1,-1,-1,-1],"split_conditions":[6.8872295E-2,3.3333335E-2,2.6666668E-1,-8.876594E-2,5.3333336E-1,4.125E-1,6.666667E-2,2.6666668E-1,5.225E-1,2E0,2E0,3E0,6.1E1,1.6666667E-1,7.972973E-1,7.297297E-1,6.333333E-1,8.696099E-2,6.3E1,-8.4998965E-2,2.635135E-1,3.2823166E-1,1E0,4.325E-1,6.081081E-1,4.625E-1,6.275E-1,2E0,1E-1,1E0,8.5E1,8.1E1,1E0,5.27027E-1,-4.732803E-2,5.7E-1,7.297297E-1,8.2170956E-2,6.486486E-1,-4.367403E-2,3.975E-1,-8.8094436E-2,1E0,2.1621622E-1,2.425E-1,-4.9554177E-2,1.042116E-2,2.9885933E-2,-1.8110504E-2,-6.2449113E-4,-2.2943158E-2,2.8123766E-2,-8.3936855E-2,2.3801099E-3,4.6956163E-2,2.8615275E-2,-6.878255E-2,-5.1861435E-2,1.653432E-5,7.088263E-2,-3.5393678E-3,7.826187E-2,-2.2153996E-2,-2.796307E-2,-8.1688754E-2,4.844857E-2,-4.5895472E-2,-1.404988E-2,7.884782E-2,8.219863E-2,1.774391E-2,5.823058E-2,-1.0299521E-2,2.0659233E-2,7.5498775E-2,6.025198E-2,-6.389815E-2],"split_indices":[14,10,10,0,10,3,11,10,3,5,5,5,8,10,9,9,10,0,8,0,9,14,6,3,9,3,3,5,11,6,8,8,0,9,0,3,9,0,9,0,3,0,4,9,3,0,0,0,0,0,0,0,0,0,0,0,0,0,0,0,0,0,0,0,0,0,0,0,0,0,0,0,0,0,0,0,0],"split_type":[0,0,0,0,0,0,0,0,0,0,0,0,0,0,0,0,0,0,0,0,0,0,0,0,0,0,0,0,0,0,0,0,0,0,0,0,0,0,0,0,0,0,0,0,0,0,0,0,0,0,0,0,0,0,0,0,0,0,0,0,0,0,0,0,0,0,0,0,0,0,0,0,0,0,0,0,0],"sum_hessian":[1.7351722E3,1.4731755E3,2.6199673E2,2.1424706E1,1.4517509E3,7.553802E1,1.8645872E2,1.0986934E3,3.530575E2,3.232343E1,4.321459E1,1.20014084E2,6.644463E1,4.403497E2,6.5834357E2,1.9673131E2,1.5632619E2,1.14484825E1,2.0874949E1,8.884904E0,3.432968E1,6.0631027E1,5.9383057E1,2.8759148E1,3.768549E1,2.071637E2,2.3318602E2,5.845414E2,7.3802185E1,1.5358842E2,4.3142887E1,8.243579E1,7.3890396E1,1.3803774E1,7.0711746E0,1.1330456E1,2.2999228E1,4.848248E1,1.2148548E1,9.18087E0,5.0202187E1,8.9413E0,1.9817848E1,2.4218618E1,1.3466869E1,6.5406685E1,1.41757E2,1.8674095E2,4.6445072E1,1.1974803E2,4.6479337E2,6.447765E1,9.324527E0,2.239521E1,1.311932E2,2.0249805E1,2.2893082E1,4.555527E1,3.6880516E1,2.8036049E1,4.5854347E1,8.327092E0,5.476682E0,5.094573E0,6.2358823E0,1.7347738E1,5.651489E0,5.4187746E0,6.729773E0,2.1938087E1,2.8264097E1,9.456463E0,1.0361385E1,6.5774283E0,1.764119E1,5.300538E0,8.166331E0],"tree_param":{"num_deleted":"0","num_feature":"17","num_nodes":"77","size_leaf_vector":"1"}},{"base_weights":[7.3782974E-3,-8.634842E-2,2.984847E-1,-1.0626904E-1,3.859498E-1,-7.4738115E-1,6.5100966E-3,2.6630476E-1,5.343873E-1,-1.3691875E-2,-8.585316E-2,7.188607E-2,-8.6892925E-2,4.228904E-2,3.3160743E-1,7.355941E-1,4.771641E-1,1.072924E-1,-8.202725E-2,1.4486185E-1,-6.9164073E-1,5.347336E-1,1.3924539E-1,4.5201662E-1,8.532917E-1,5.3077664E-2,5.6769854E-1,3.4686334E-2,-3.3892714E-3,-4.3047868E-2,2.499396E-2,-8.727824E-2,-2.767056E-2,5.649298E-2,-1.0970573E-2,3.1498265E-2,-3.0507315E-3,6.995402E-2,-7.85507E-3,3.8396545E-2,8.825662E-2,6.1838716E-2,-2.062128E-2,4.9663644E-2,7.799716E-2],"categories":[],"categories_nodes":[],"categories_segments":[],"categories_sizes":[],"default_left":[0,0,0,0,0,0,0,0,0,0,0,0,0,0,0,0,0,0,0,0,0,0,0,0,0,0,0,0,0,0,0,0,0,0,0,0,0,0,0,0,0,0,0,0,0],"id":3,"left_children":[1,-1,3,5,7,9,11,13,15,-1,-1,17,-1,19,21,23,25,27,-1,29,31,33,35,37,39,41,43,-1,-1,-1,-1,-1,-1,-1,-1,-1,-1,-1,-1,-1,-1,-1,-1,-1,-1],"loss_changes":[4.285397E2,0E0,4.4928093E1,1.6401327E1,1.8290344E1,2.0839462E0,1.1019185E1,8.426594E0,4.868393E0,0E0,0E0,5.7172284E0,0E0,1.0005323E1,1.7372566E1,2.8372993E0,1.3897865E1,5.9476123E0,0E0,7.1643286E0,8.6692715E-1,4.338314E0,6.9538274E0,4.299342E0,4.9113846E-1,9.755093E0,4.010002E0,0E0,0E0,0E0,0E0,0E0,0E0,0E0,0E0,0E0,0E0,0E0,0E0,0E0,0E0,0E0,0E0,0E0,0E0],"parents":[2147483647,0,0,2,2,3,3,4,4,5,5,6,6,7,7,8,8,11,11,13,13,14,14,15,15,16,16,17,17,19,19,20,20,21,21,22,22,23,23,24,24,25,25,26,26],"right_children":[2,-1,4,6,8,10,12,14,16,-1,-1,18,-1,20,22,24,26,28,-1,30,32,34,36,38,40,42,44,-1,-1,-1,-1,-1,-1,-1,-1,-1,-1,-1,-1,-1,-1,-1,-1,-1,-1],"split_conditions":[1E0,-8.634842E-2,3.7917694E-1,1.0506941E-1,6.2201744E-1,1.8E1,7.6229507E-1,2.3648648E-1,4.2E1,-1.3691875E-2,-8.585316E-2,4.2050034E-1,-8.6892925E-2,7.4590164E-1,5.27027E-1,3.6486486E-1,6.2E1,3.108108E-1,-8.202725E-2,3.7704918E-1,7.692308E-2,3.039357E-1,4.9366215E-1,3.0405405E-1,3.3333334E-1,2.6666668E-1,6.693989E-1,3.4686334E-2,-3.3892714E-3,-4.3047868E-2,2.499396E-2,-8.727824E-2,-2.767056E-2,5.649298E-2,-1.0970573E-2,3.1498265E-2,-3.0507315E-3,6.995402E-2,-7.85507E-3,3.8396545E-2,8.825662E-2,6.1838716E-2,-2.062128E-2,4.9663644E-2,7.799716E-2],"split_indices":[12,0,15,15,15,8,2,9,8,0,0,14,0,2,9,9,8,9,0,2,11,14,15,9,2,10,2,0,0,0,0,0,0,0,0,0,0,0,0,0,0,0,0,0,0],"split_type":[0,0,0,0,0,0,0,0,0,0,0,0,0,0,0,0,0,0,0,0,0,0,0,0,0,0,0,0,0,0,0,0,0,0,0,0,0,0,0,0,0,0,0,0,0],"sum_hessian":[1.688607E3,4.2246567E2,1.2661414E3,2.2474628E2,1.0413951E3,3.291203E1,1.9183426E2,5.785413E2,4.6285382E2,5.551808E0,2.7360222E1,1.7946434E2,1.2369906E1,1.3130133E2,4.4724E2,9.9476036E1,3.6337778E2,1.7356793E2,5.8964143E0,1.1602478E2,1.5276557E1,2.164151E2,2.3082487E2,3.0846182E1,6.862985E1,6.440045E1,2.9897733E2,6.4081795E1,1.0948614E2,1.729263E1,9.873215E1,9.698303E0,5.5782533E0,2.0699461E2,9.420494E0,1.1328237E2,1.1754251E2,2.0944857E1,9.901325E0,5.058847E0,6.3571007E1,1.9936121E1,4.4464325E1,2.2684706E2,7.2130264E1],"tree_param":{"num_deleted":"0","num_feature":"17","num_nodes":"45","size_leaf_vector":"1"}},{"base_weights":[-5.7950066E-3,-8.195332E-2,2.578704E-1,-8.1881486E-2,2.666876E-1,1.0224367E-1,2.9979274E-1,-7.452879E-2,3.5474077E-1,1.5977198E-1,3.4406087E-1,-1.9359827E-1,2.0727064E-1,4.951743E-1,-3.3776438E-1,2.829873E-1,-3.721657E-2,3.5729244E-1,-4.2290467E-1,8.557544E-3,-3.7092958E-2,-5.2317705E-2,4.1348506E-2,6.536473E-2,2.9604068E-2,-5.9888866E-2,-4.285168E-3,-3.30051E-2,3.3233676E-2,-4.8620652E-2,2.4514612E-2,3.6729146E-2,-5.0759792E-2,-8.309044E-2,2.3975237E-3],"categories":[],"categories_nodes":[],"categories_segments":[],"categories_sizes":[],"default_left":[0,0,0,0,0,0,0,0,0,0,0,0,0,0,0,0,0,0,0,0,0,0,0,0,0,0,0,0,0,0,0,0,0,0,0],"id":4,"left_children":[1,-1,3,-1,5,7,9,11,13,15,17,19,21,23,25,27,29,31,33,-1,-1,-1,-1,-1,-1,-1,-1,-1,-1,-1,-1,-1,-1,-1,-1],"loss_changes":[3.3016754E2,0E0,1.119429E1,0E0,6.208145E0,8.771966E0,5.839485E0,3.9133496E0,8.044203E0,5.685431E0,7.525238E0,4.1168995E0,5.406966E0,1.8489399E0,9.9622643E-1,4.455517E0,1.157238E1,6.361191E0,2.4096274E0,0E0,0E0,0E0,0E0,0E0,0E0,0E0,0E0,0E0,0E0,0E0,0E0,0E0,0E0,0E0,0E0],"parents":[2147483647,0,0,2,2,4,4,5,5,6,6,7,7,8,8,9,9,10,10,11,11,12,12,13,13,14,14,15,15,16,16,17,17,18,18],"right_children":[2,-1,4,-1,6,8,10,12,14,16,18,20,22,24,26,28,30,32,34,-1,-1,-1,-1,-1,-1,-1,-1,-1,-1,-1,-1,-1,-1,-1,-1],"split_conditions":[1E0,-8.195332E-2,3.3333335E-2,-8.1881486E-2,1.6891892E-1,9.2E1,1E0,3E0,1.72E2,5.608108E-1,8.648649E-1,3.7E1,5.4054055E-2,2E0,3.3333334E-1,1E0,7.162162E-1,8E-1,8.918919E-1,8.557544E-3,-3.7092958E-2,-5.2317705E-2,4.1348506E-2,6.536473E-2,2.9604068E-2,-5.9888866E-2,-4.285168E-3,-3.30051E-2,3.3233676E-2,-4.8620652E-2,2.4514612E-2,3.6729146E-2,-5.0759792E-2,-8.309044E-2,2.3975237E-3],"split_indices":[12,0,10,0,9,8,0,0,8,9,9,8,9,0,10,7,9,10,9,0,0,0,0,0,0,0,0,0,0,0,0,0,0,0,0],"split_type":[0,0,0,0,0,0,0,0,0,0,0,0,0,0,0,0,0,0,0,0,0,0,0,0,0,0,0,0,0,0,0,0,0,0,0],"sum_hessian":[1.5366041E3,3.7561923E2,1.160985E3,8.592007E0,1.152393E3,1.9430855E2,9.580844E2,1.1447425E2,7.983429E1,2.3179175E2,7.2629266E2,8.094162E1,3.3532627E1,6.673119E1,1.3103101E1,1.4264139E2,8.915036E1,7.146285E2,1.1664141E1,3.1424059E1,4.9517563E1,6.937346E0,2.6595282E1,3.5608704E1,3.1122486E1,6.2231383E0,6.8799624E0,1.0052384E1,1.32589E2,3.4277435E1,5.487293E1,7.0714417E2,7.4843554E0,5.7650757E0,5.8990655E0],"tree_param":{"num_deleted":"0","num_feature":"17","num_nodes":"35","size_leaf_vector":"1"}},{"base_weights":[-2.0890389E-2,-7.842201E-2,2.120691E-1,1.9521344E-1,4.953209E-1,2.0611627E-1,-2.514398E-1,7.296967E-2,2.7208114E-1,1.7785823E-1,3.247475E-1,3.9699346E-1,-7.427986E-1,6.218684E-1,1.5250078E-3,2.0066625E-1,3.879069E-2,-1.680456E-1,3.526658E-1,-4.6946728E-3,7.776677E-2,-3.9519113E-2,-8.820502E-2,7.4799396E-2,3.273974E-2,-4.6866477E-2,2.7923563E-1,1.9157693E-2,6.541871E-2,-1.0344804E-2,4.2777866E-2,-7.5671814E-2,4.3880165E-2,3.880141E-2,5.9348266E-3,4.1262385E-2,2.5447442E-3],"categories":[],"categories_nodes":[],"categories_segments":[],"categories_sizes":[],"default_left":[0,0,0,0,0,0,0,0,0,0,0,0,0,0,0,0,0,0,0,0,0,0,0,0,0,0,0,0,0,0,0,0,0,0,0,0,0],"id":5,"left_children":[1,-1,3,5,7,9,11,-1,13,15,17,19,21,23,25,27,29,31,33,-1,-1,-1,-1,-1,-1,-1,35,-1,-1,-1,-1,-1,-1,-1,-1,-1,-1],"loss_changes":[2.6459598E2,0E0,5.275898E0,5.2955856E0,2.9992027E0,3.4213104E0,8.585502E0,0E0,3.1634212E0,2.6743946E0,2.8381882E0,2.0926993E0,2.5837326E-1,1.9378376E-1,2.7742317E0,2.8079567E0,6.830574E0,4.380207E0,1.906374E0,0E0,0E0,0E0,0E0,0E0,0E0,0E0,4.053532E-1,0E0,0E0,0E0,0E0,0E0,0E0,0E0,0E0,0E0,0E0],"parents":[2147483647,0,0,2,2,3,3,4,4,5,5,6,6,8,8,9,9,10,10,11,11,12,12,13,13,14,14,15,15,16,16,17,17,18,18,26,26],"right_children":[2,-1,4,6,8,10,12,-1,14,16,18,20,22,24,26,28,30,32,34,-1,-1,-1,-1,-1,-1,-1,36,-1,-1,-1,-1,-1,-1,-1,-1,-1,-1],"split_conditions":[1E0,-7.842201E-2,8.513514E-1,8.310811E-1,8.648649E-1,6.830601E-1,5.136612E-1,7.296967E-2,5E1,7.297297E-1,1.7E1,2E0,1E0,5.5555556E-2,5.575E-1,7.162162E-1,5.9836066E-1,7.6502734E-1,1.75E2,-4.6946728E-3,7.776677E-2,-3.9519113E-2,-8.820502E-2,7.4799396E-2,3.273974E-2,-4.6866477E-2,9.8E1,1.9157693E-2,6.541871E-2,-1.0344804E-2,4.2777866E-2,-7.5671814E-2,4.3880165E-2,3.880141E-2,5.9348266E-3,4.1262385E-2,2.5447442E-3],"split_indices":[12,0,9,9,9,2,2,0,8,9,8,0,0,11,3,9,2,2,8,0,0,0,0,0,0,0,8,0,0,0,0,0,0,0,0,0,0],"split_type":[0,0,0,0,0,0,0,0,0,0,0,0,0,0,0,0,0,0,0,0,0,0,0,0,0,0,0,0,0,0,0,0,0,0,0,0,0],"sum_hessian":[1.485701E3,3.469443E2,1.1387567E3,1.0767256E3,6.2031174E1,1.0518131E3,2.491239E1,2.8935566E1,3.3095608E1,8.5216833E2,1.9964479E2,1.0734666E1,1.4177723E1,1.3706775E1,1.9388832E1,7.311009E2,1.21067444E2,1.0242947E1,1.8940184E2,5.2389793E0,5.495687E0,5.3582487E0,8.819474E0,8.280441E0,5.4263334E0,6.81044E0,1.2578393E1,7.18347E2,1.2753948E1,8.900027E1,3.2067177E1,5.1576166E0,5.08533E0,1.6843915E2,2.0962694E1,7.5764227E0,5.0019703E0],"tree_param":{"num_deleted":"0","num_feature":"17","num_nodes":"37","size_leaf_vector":"1"}},{"base_weights":[-6.8893023E-3,-7.565921E-2,2.0243497E-1,-7.246943E-1,2.5209433E-1,-4.416692E-1,-8.3555214E-2,1.093468E-1,4.0975508E-1,-7.419665E-2,-6.0413E-4,9.9058546E-2,7.617563E-2,3.244267E-1,6.3290334E-1,-8.095497E-2,1.1400063E-1,2.5598854E-1,4.6657252E-1,7.157771E-1,4.5062107E-1,-1.6432082E-3,1.6483562E-2,3.6664214E-2,-7.682775E-3,-2.784576E-4,5.79391E-2,7.8248225E-2,5.9262197E-2,1.77788E-2,7.081762E-2],"categories":[],"categories_nodes":[],"categories_segments":[],"categories_sizes":[],"default_left":[0,0,0,0,0,0,0,0,0,0,0,0,0,0,0,0,0,0,0,0,0,0,0,0,0,0,0,0,0,0,0],"id":6,"left_children":[1,-1,3,5,7,9,-1,11,13,-1,-1,15,-1,17,19,-1,21,23,25,27,29,-1,-1,-1,-1,-1,-1,-1,-1,-1,-1],"loss_changes":[2.2818408E2,0E0,5.24522E1,1.3206806E0,2.4195724E1,2.364163E0,0E0,3.6522026E0,9.451805E0,0E0,0E0,7.6345935E0,0E0,3.435955E0,1.6803436E0,0E0,3.6814446E0,9.42605E0,6.3870087E0,1.7409897E-1,3.0831804E0,0E0,0E0,0E0,0E0,0E0,0E0,0E0,0E0,0E0,0E0],"parents":[2147483647,0,0,2,2,3,3,4,4,5,5,7,7,8,8,11,11,13,13,14,14,16,16,17,17,18,18,19,19,20,20],"right_children":[2,-1,4,6,8,10,-1,12,14,-1,-1,16,-1,18,20,-1,22,24,26,28,30,-1,-1,-1,-1,-1,-1,-1,-1,-1,-1],"split_conditions":[1E0,-7.565921E-2,1.89854E-1,2.7027026E-1,5.6908154E-1,1.0274146E-1,-8.3555214E-2,1.87E2,6.557377E-1,-7.419665E-2,-6.0413E-4,2.027027E-2,7.617563E-2,5E-1,1.13E2,-8.095497E-2,3.7917694E-1,4E-1,2.1621622E-1,9.544496E-1,9.313695E-1,-1.6432082E-3,1.6483562E-2,3.6664214E-2,-7.682775E-3,-2.784576E-4,5.79391E-2,7.8248225E-2,5.9262197E-2,1.77788E-2,7.081762E-2],"split_indices":[12,0,15,9,15,15,0,8,2,0,0,9,0,10,8,0,15,10,9,15,15,0,0,0,0,0,0,0,0,0,0],"split_type":[0,0,0,0,0,0,0,0,0,0,0,0,0,0,0,0,0,0,0,0,0,0,0,0,0,0,0,0,0,0,0],"sum_hessian":[1.4517119E3,3.1639493E2,1.135317E3,5.6925396E1,1.0783916E3,1.7678226E1,3.9247166E1,5.671849E2,5.1120673E2,9.912408E0,7.7658195E0,5.596643E2,7.52058E0,3.7190002E2,1.393067E2,8.086125E0,5.515782E2,2.5340088E2,1.1849914E2,9.337766E1,4.5929047E1,1.5432353E2,3.9725464E2,1.903221E2,6.3078777E1,2.2980907E1,9.5518234E1,5.6571133E1,3.680653E1,2.3312366E1,2.261668E1],"tree_param":{"num_deleted":"0","num_feature":"17","num_nodes":"31","size_leaf_vector":"1"}},{"base_weights":[-8.022586E-3,-6.375327E-1,1.1141951E-1,-3.0442554E-1,-7.2650754E-1,-1.4530709E-2,3.516486E-1,-5.6702304E-1,1.9921677E-1,-7.413592E-2,-4.91248E-1,2.3219232E-2,-1.8129535E-1,2.739923E-1,5.2660495E-1,-5.64756E-3,-6.679659E-1,-4.2457294E-2,5.9368618E-2,-6.493421E-2,-1.6559707E-2,5.668793E-2,-7.0011586E-2,-7.1388654E-2,7.3663644E-3,1.7815088E-1,4.6598017E-1,1.17906295E-1,5.654024E-1,-2.5036564E-2,-7.483472E-2,-9.213663E-2,1.3763633E-1,1.7265072E-1,-2.8475323E-1,1.3052629E-1,5.927857E-1,3.512633E-2,5.53552E-1,-1.1926878E-2,3.3201348E-2,6.3134515E-1,3.8558394E-1,1.1558922E-3,-7.0575915E-2,-6.910389E-2,1.77486E-2,7.7132806E-2,9.1596125E-3,1.6316336E-3,-6.628221E-2,1.8326217E-2,-4.0422324E-2,7.241507E-2,1.8484786E-2,4.2583868E-2,-1.7699732E-2,7.492504E-2,2.0959353E-2,7.545941E-2,5.5940807E-2,-4.3305107E-3,7.4823655E-2],"categories":[],"categories_nodes":[],"categories_segments":[],"categories_sizes":[],"default_left":[0,0,0,0,0,0,0,0,0,0,0,0,0,0,0,0,0,0,0,0,0,0,0,0,0,0,0,0,0,0,0,0,0,0,0,0,0,0,0,0,0,0,0,0,0,0,0,0,0,0,0,0,0,0,0,0,0,0,0,0,0,0,0],"id":7,"left_children":[1,3,5,7,9,11,13,15,17,-1,19,21,23,25,27,-1,29,-1,-1,-1,-1,31,-1,-1,33,35,37,39,41,-1,-1,43,45,47,49,51,53,55,57,-1,-1,59,61,-1,-1,-1,-1,-1,-1,-1,-1,-1,-1,-1,-1,-1,-1,-1,-1,-1,-1,-1,-1],"loss_changes":[1.053669E2,6.2999954E0,3.5657032E1,6.6398864E0,1.2549591E-1,4.886172E0,5.281124E0,1.5722599E0,4.557223E0,0E0,5.204756E-1,1.5243885E1,1.44726925E1,5.062254E0,1.8167496E0,0E0,6.191082E-1,0E0,0E0,0E0,0E0,7.2920012E0,0E0,0E0,5.187468E0,3.6183634E0,3.4423332E0,6.782969E-1,9.8210526E-1,0E0,0E0,1.3624525E1,1.3014709E1,3.189132E0,4.480301E0,4.921035E0,8.020325E-1,1.511065E0,4.949461E0,0E0,0E0,1.5506554E-1,5.2370257E0,0E0,0E0,0E0,0E0,0E0,0E0,0E0,0E0,0E0,0E0,0E0,0E0,0E0,0E0,0E0,0E0,0E0,0E0,0E0,0E0],"parents":[2147483647,0,0,1,1,2,2,3,3,4,4,5,5,6,6,7,7,8,8,10,10,11,11,12,12,13,13,14,14,16,16,21,21,24,24,25,25,26,26,27,27,28,28,31,31,32,32,33,33,34,34,35,35,36,36,37,37,38,38,41,41,42,42],"right_children":[2,4,6,8,10,12,14,16,18,-1,20,22,24,26,28,-1,30,-1,-1,-1,-1,32,-1,-1,34,36,38,40,42,-1,-1,44,46,48,50,52,54,56,58,-1,-1,60,62,-1,-1,-1,-1,-1,-1,-1,-1,-1,-1,-1,-1,-1,-1,-1,-1,-1,-1,-1,-1],"split_conditions":[2.279567E-1,4.3715847E-1,6.2201744E-1,5.3333336E-1,1.4285715E-1,4E0,6.639344E-1,1E0,1E0,-7.413592E-2,3E0,4E0,4E0,5E-1,7.101278E-1,-5.64756E-3,1.9594595E-1,-4.2457294E-2,5.9368618E-2,-6.493421E-2,-1.6559707E-2,1E0,-7.0011586E-2,-7.1388654E-2,4.9366215E-1,7.702703E-1,1.0810811E-1,4.7297296E-1,8.196721E-1,-2.5036564E-2,-7.483472E-2,1E0,1E0,1.6666667E-1,6.25E-2,7.297297E-1,8.310811E-1,5.163934E-1,5.675676E-1,-1.1926878E-2,3.3201348E-2,3E-1,4.391892E-1,1.1558922E-3,-7.0575915E-2,-6.910389E-2,1.77486E-2,7.7132806E-2,9.1596125E-3,1.6316336E-3,-6.628221E-2,1.8326217E-2,-4.0422324E-2,7.241507E-2,1.8484786E-2,4.2583868E-2,-1.7699732E-2,7.492504E-2,2.0959353E-2,7.545941E-2,5.5940807E-2,-4.3305107E-3,7.4823655E-2],"split_indices":[15,2,15,10,11,6,2,0,4,0,6,0,0,10,15,0,9,0,0,0,0,6,0,0,15,9,9,9,2,0,0,0,0,10,11,9,9,2,9,0,0,10,9,0,0,0,0,0,0,0,0,0,0,0,0,0,0,0,0,0,0,0,0],"split_type":[0,0,0,0,0,0,0,0,0,0,0,0,0,0,0,0,0,0,0,0,0,0,0,0,0,0,0,0,0,0,0,0,0,0,0,0,0,0,0,0,0,0,0,0,0,0,0,0,0,0,0,0,0,0,0,0,0,0,0,0,0,0,0],"sum_hessian":[1.3986973E3,2.225045E2,1.1761927E3,4.807288E1,1.7443163E2,7.719754E2,4.0421738E2,3.1645645E1,1.6427233E1,1.6165053E2,1.27810955E1,6.296947E2,1.4228072E2,2.8212897E2,1.2208842E2,5.6449294E0,2.6000717E1,6.236072E0,1.0191161E1,7.7282133E0,5.052882E0,6.028602E2,2.683445E1,3.6627514E1,1.05653206E2,1.8981903E2,9.230993E1,1.1158584E1,1.1092984E2,5.06187E0,2.0938847E1,2.1190215E2,3.909581E2,6.79549E1,3.7698303E1,1.7165846E2,1.8160564E1,1.6022442E1,7.628748E1,5.2826605E0,5.8759227E0,7.892093E1,3.2008907E1,1.8196947E2,2.9932674E1,1.7073046E1,3.7388504E2,6.9406543E0,6.1014244E1,2.1371649E1,1.6326656E1,1.5701797E2,1.4640487E1,1.2965201E1,5.195363E0,5.449282E0,1.0573159E1,4.7686653E1,2.8600832E1,2.5077019E1,5.3843914E1,1.494231E1,1.7066597E1],"tree_param":{"num_deleted":"0","num_feature":"17","num_nodes":"63","size_leaf_vector":"1"}},{"base_weights":[-5.5189533E-3,-6.380634E-1,9.5765516E-2,-2.1602087E-1,-6.850379E-1,-2.8142296E-2,3.0608347E-1,-6.783423E-2,3.1230515E-2,-6.9458103E-1,-3.6235016E-2,-1.6531764E-1,4.4516176E-2,2.4208528E-1,4.8377612E-1,-4.0602632E-2,-7.0921205E-2,1.2933198E-1,-2.9016972E-1,6.5426685E-2,-5.645259E-1,6.774543E-2,2.1660094E-1,3.540331E-1,7.047034E-1,-4.8076388E-1,2.872905E-1,-3.9030614E-1,1.3428985E-2,-2.2889076E-1,9.831646E-2,1.0178541E-3,-8.3440505E-2,-2.0385544E-1,2.4750611E-1,4.8279998E-1,-1.7507431E-1,3.5967767E-2,7.428251E-2,-7.60343E-2,-6.497736E-4,-5.6288965E-2,4.1339237E-2,5.159808E-2,-4.3155935E-2,1.5709182E-2,-7.781886E-2,-3.9933767E-2,3.2827165E-2,1.5894368E-2,-1.2912052E-2,1.9848779E-2,-8.1733845E-2,1.9687373E-2,5.031305E-2,5.5337895E-2,2.4850972E-2,-5.9512395E-2,2.2976737E-2],"categories":[],"categories_nodes":[],"categories_segments":[],"categories_sizes":[],"default_left":[0,0,0,0,0,0,0,0,0,0,0,0,0,0,0,0,0,0,0,0,0,0,0,0,0,0,0,0,0,0,0,0,0,0,0,0,0,0,0,0,0,0,0,0,0,0,0,0,0,0,0,0,0,0,0,0,0,0,0],"id":8,"left_children":[1,3,5,7,9,11,13,-1,-1,15,-1,17,19,21,23,-1,-1,25,27,29,31,-1,33,35,37,39,41,43,45,47,49,-1,-1,51,53,55,57,-1,-1,-1,-1,-1,-1,-1,-1,-1,-1,-1,-1,-1,-1,-1,-1,-1,-1,-1,-1,-1,-1],"loss_changes":[8.763041E1,3.5049973E0,3.0740097E1,5.276107E0,1.6373444E-1,7.415072E0,4.7818565E0,0E0,0E0,2.885437E-1,0E0,9.530985E0,6.168671E0,3.3567715E0,2.9222183E0,0E0,0E0,7.5515246E0,5.5606613E0,4.562299E0,2.5813837E0,0E0,4.051977E0,5.1798E0,1.6199684E-1,2.0539374E0,6.867021E0,5.327381E0,5.261371E0,4.627392E0,5.8708563E0,0E0,0E0,5.503603E0,3.548399E0,7.778015E-1,2.7464314E0,0E0,0E0,0E0,0E0,0E0,0E0,0E0,0E0,0E0,0E0,0E0,0E0,0E0,0E0,0E0,0E0,0E0,0E0,0E0,0E0,0E0,0E0],"parents":[2147483647,0,0,1,1,2,2,3,3,4,4,5,5,6,6,9,9,11,11,12,12,13,13,14,14,17,17,18,18,19,19,20,20,22,22,23,23,24,24,25,25,26,26,27,27,28,28,29,29,30,30,33,33,34,34,35,35,36,36],"right_children":[2,4,6,8,10,12,14,-1,-1,16,-1,18,20,22,24,-1,-1,26,28,30,32,-1,34,36,38,40,42,44,46,48,50,-1,-1,52,54,56,58,-1,-1,-1,-1,-1,-1,-1,-1,-1,-1,-1,-1,-1,-1,-1,-1,-1,-1,-1,-1,-1,-1],"split_conditions":[2.021347E-1,3.9071038E-1,6.082119E-1,1.1528009E-1,2.5490177E-1,4.1742122E-1,6.666667E-1,-6.783423E-2,3.1230515E-2,9E0,-3.6235016E-2,4.3715847E-1,5.994318E-1,6.14992E-1,6.486486E-1,-4.0602632E-2,-7.0921205E-2,2.5675675E-1,5.3333336E-1,1.1486486E-1,4E0,6.774543E-2,6.2201744E-1,1.54E2,6.9622684E-1,3.25E-1,1.6666667E-1,4.054054E-2,3.9480194E-1,5.3333336E-1,7.297297E-1,1.0178541E-3,-8.3440505E-2,3E-1,1.09012015E-1,8.087432E-1,8.741328E-1,3.5967767E-2,7.428251E-2,-7.60343E-2,-6.497736E-4,-5.6288965E-2,4.1339237E-2,5.159808E-2,-4.3155935E-2,1.5709182E-2,-7.781886E-2,-3.9933767E-2,3.2827165E-2,1.5894368E-2,-1.2912052E-2,1.9848779E-2,-8.1733845E-2,1.9687373E-2,5.031305E-2,5.5337895E-2,2.4850972E-2,-5.9512395E-2,2.2976737E-2],"split_indices":[15,2,15,15,14,15,2,0,0,8,0,2,15,15,9,0,0,9,10,9,1,0,15,8,15,3,10,9,15,10,9,0,0,10,14,2,15,0,0,0,0,0,0,0,0,0,0,0,0,0,0,0,0,0,0,0,0,0,0],"split_type":[0,0,0,0,0,0,0,0,0,0,0,0,0,0,0,0,0,0,0,0,0,0,0,0,0,0,0,0,0,0,0,0,0,0,0,0,0,0,0,0,0,0,0,0,0,0,0,0,0,0,0,0,0,0,0,0,0,0,0],"sum_hessian":[1.3649945E3,1.8780394E2,1.1771906E3,1.9583508E1,1.6822044E2,7.4101556E2,4.3617502E2,1.0393668E1,9.189839E0,1.6196803E2,6.252408E0,2.5662402E2,4.843915E2,3.2282922E2,1.1334578E2,9.533489E0,1.5243454E2,7.612737E1,1.8049664E2,4.693344E2,1.5057101E1,1.622016E1,3.0660907E2,7.333422E1,4.0011555E1,1.5105914E1,6.1021458E1,1.3576189E2,4.4734768E1,4.627129E1,4.2306314E2,5.00045E0,1.0056651E1,2.0389093E1,2.8621997E2,5.9202785E1,1.4131438E1,5.2802367E0,3.4731316E1,8.99143E0,6.114484E0,7.3320317E0,5.3689423E1,5.304139E0,1.3045775E2,3.864868E1,6.0860868E0,3.5786304E1,1.0484985E1,3.3460837E2,8.845476E1,1.2623573E1,7.7655196E0,2.4070424E2,4.551573E1,4.4122353E1,1.5080435E1,6.8260055E0,7.305433E0],"tree_param":{"num_deleted":"0","num_feature":"17","num_nodes":"59","size_leaf_vector":"1"}},{"base_weights":[5.6377156E-3,-7.0348606E-2,2.0895784E-1,-5.1900256E-1,2.471552E-1,2.5262887E-2,-6.340458E-1,1.6877457E-1,3.8291192E-1,-3.8418096E-1,-7.287053E-2,2.8949492E-2,2.2261277E-1,1.3355799E-1,4.2676735E-1,-6.803014E-2,5.629065E-3,-1.8369107E-1,1.4695849E-1,2.0810822E-1,6.852413E-2,3.3815378E-1,-1.498059E-1,4.4921014E-1,2.366212E-2,6.1670714E-3,-8.888802E-2,8.093071E-2,8.326152E-3,2.3344558E-2,-1.2592645E-2,-3.2485276E-3,5.4810602E-2,4.5222633E-2,-7.300535E-2,3.8232934E-2,5.5645164E-2,-8.152232E-2,4.6827726E-2],"categories":[],"categories_nodes":[],"categories_segments":[],"categories_sizes":[],"default_left":[0,0,0,0,0,0,0,0,0,0,0,0,0,0,0,0,0,0,0,0,0,0,0,0,0,0,0,0,0,0,0,0,0,0,0,0,0,0,0],"id":9,"left_children":[1,-1,3,5,7,-1,9,11,13,15,-1,17,19,21,23,-1,-1,25,27,29,-1,31,33,35,37,-1,-1,-1,-1,-1,-1,-1,-1,-1,-1,-1,-1,-1,-1],"loss_changes":[1.869347E2,0E0,2.8129436E1,4.6764746E0,1.0079781E1,0E0,6.565132E-1,4.560009E0,3.7100334E0,2.0019603E0,0E0,4.32007E0,2.7186394E0,3.2051554E0,2.624588E0,0E0,0E0,1.0736088E1,4.5253744E0,3.662489E0,0E0,2.553313E0,8.450411E0,1.7058487E0,6.660995E0,0E0,0E0,0E0,0E0,0E0,0E0,0E0,0E0,0E0,0E0,0E0,0E0,0E0,0E0],"parents":[2147483647,0,0,2,2,3,3,4,4,6,6,7,7,8,8,9,9,11,11,12,12,13,13,14,14,17,17,18,18,19,19,21,21,22,22,23,23,24,24],"right_children":[2,-1,4,6,8,-1,10,12,14,16,-1,18,20,22,24,-1,-1,26,28,30,-1,32,34,36,38,-1,-1,-1,-1,-1,-1,-1,-1,-1,-1,-1,-1,-1,-1],"split_conditions":[1E0,-7.0348606E-2,1.89854E-1,3.425E-1,6.2201744E-1,2.5262887E-2,5.218579E-1,1E0,4.125683E-1,4.325E-1,-7.287053E-2,4.738032E-1,7.725E-1,3.15E-1,7.7E-1,-6.803014E-2,5.629065E-3,6.4480877E-1,4.8130003E-1,7.2677594E-1,6.852413E-2,4.662162E-1,5E-1,6.338798E-1,7.8E-1,6.1670714E-3,-8.888802E-2,8.093071E-2,8.326152E-3,2.3344558E-2,-1.2592645E-2,-3.2485276E-3,5.4810602E-2,4.5222633E-2,-7.300535E-2,3.8232934E-2,5.5645164E-2,-8.152232E-2,4.6827726E-2],"split_indices":[12,0,15,3,15,0,2,0,2,3,0,15,3,3,3,0,0,2,15,2,0,9,9,2,3,0,0,0,0,0,0,0,0,0,0,0,0,0,0],"split_type":[0,0,0,0,0,0,0,0,0,0,0,0,0,0,0,0,0,0,0,0,0,0,0,0,0,0,0,0,0,0,0,0,0,0,0,0,0,0,0],"sum_hessian":[1.2948684E3,2.8787814E2,1.00699023E3,4.9446167E1,9.5754407E2,6.147532E0,4.3298637E1,6.089436E2,3.4860043E2,1.3576595E1,2.972204E1,1.7022952E2,4.387141E2,5.308642E1,2.95514E2,7.9287777E0,5.6478176E0,6.0253925E1,1.099756E2,4.2699283E2,1.1721286E1,3.0920555E1,2.2165863E1,2.795857E2,1.5928309E1,4.527262E1,1.4981303E1,8.483629E0,1.01491974E2,3.9744604E2,2.9546764E1,1.1314855E1,1.96057E1,1.0902419E1,1.1263445E1,1.7558212E2,1.0400358E2,5.151038E0,1.0777272E1],"tree_param":{"num_deleted":"0","num_feature":"17","num_nodes":"39","size_leaf_vector":"1"}},{"base_weights":[-5.603842E-3,-6.8377465E-2,1.805285E-1,4.9406264E-2,3.4068567E-1,-6.1673135E-1,8.6334325E-2,2.7304977E-1,4.995842E-1,-2.4184093E-2,-6.93314E-2,1.1716945E-1,-6.7160025E-2,2.9483396E-1,-3.9491143E-2,6.850034E-2,4.371886E-1,8.295246E-2,3.3983704E-1,-5.8760536E-1,1.17502175E-1,2.1702507E-1,4.9642426E-1,1.3587902E-1,5.2229196E-1,1.0398029E-2,-7.898055E-2,-1.5196993E-2,3.9807852E-2,-3.379369E-2,-7.793627E-2,-5.6175735E-2,2.3425734E-2,2.9331265E-2,-5.91561E-2,-1.3594471E-2,6.146704E-2,3.6255702E-2,-3.0049948E-2,7.037302E-2,3.8617134E-2],"categories":[],"categories_nodes":[],"categories_segments":[],"categories_sizes":[],"default_left":[0,0,0,0,0,0,0,0,0,0,0,0,0,0,0,0,0,0,0,0,0,0,0,0,0,0,0,0,0,0,0,0,0,0,0,0,0,0,0,0,0],"id":10,"left_children":[1,-1,3,5,7,9,11,13,15,-1,-1,17,19,21,-1,-1,23,25,27,29,31,33,35,37,39,-1,-1,-1,-1,-1,-1,-1,-1,-1,-1,-1,-1,-1,-1,-1,-1],"loss_changes":[1.5708484E2,0E0,2.0441092E1,1.3238922E1,4.502857E0,5.498152E-1,2.4311073E0,4.624172E0,1.0851746E0,0E0,0E0,3.1780229E0,8.339198E0,4.548361E0,0E0,0E0,2.4267921E0,6.8274746E0,1.691431E0,7.124734E-1,5.162288E0,1.3689157E1,6.32267E0,2.4524364E0,1.5294857E0,0E0,0E0,0E0,0E0,0E0,0E0,0E0,0E0,0E0,0E0,0E0,0E0,0E0,0E0,0E0,0E0],"parents":[2147483647,0,0,2,2,3,3,4,4,5,5,6,6,7,7,8,8,11,11,12,12,13,13,16,16,17,17,18,18,19,19,20,20,21,21,22,22,23,23,24,24],"right_children":[2,-1,4,6,8,10,12,14,16,-1,-1,18,20,22,-1,-1,24,26,28,30,32,34,36,38,40,-1,-1,-1,-1,-1,-1,-1,-1,-1,-1,-1,-1,-1,-1,-1,-1],"split_conditions":[1E0,-6.8377465E-2,5.673632E-1,1.0506941E-1,6.557377E-1,2.2E1,6.612022E-1,6.425E-1,4.3E1,-2.4184093E-2,-6.93314E-2,5.9E-1,3.728071E-1,1.28E2,-3.9491143E-2,6.850034E-2,6.2E1,3.294188E-1,1E0,7.4043715E-1,2.5E1,1.15E2,3.387978E-1,7.978142E-1,1.09E2,1.0398029E-2,-7.898055E-2,-1.5196993E-2,3.9807852E-2,-3.379369E-2,-7.793627E-2,-5.6175735E-2,2.3425734E-2,2.9331265E-2,-5.91561E-2,-1.3594471E-2,6.146704E-2,3.6255702E-2,-3.0049948E-2,7.037302E-2,3.8617134E-2],"split_indices":[12,0,15,15,2,8,2,3,8,0,0,3,15,8,0,0,8,14,7,2,8,8,2,2,8,0,0,0,0,0,0,0,0,0,0,0,0,0,0,0,0],"split_type":[0,0,0,0,0,0,0,0,0,0,0,0,0,0,0,0,0,0,0,0,0,0,0,0,0,0,0,0,0,0,0,0,0,0,0,0,0,0,0,0,0],"sum_hessian":[1.2420614E3,2.6702454E2,9.750368E2,5.371773E2,4.3785953E2,2.7247976E1,5.0992932E2,3.0947696E2,1.2838257E2,5.54883E0,2.1699146E1,4.2536658E2,8.4562744E1,3.003887E2,9.088249E0,2.9408653E1,9.8973915E1,3.7028683E2,5.5079758E1,2.1716686E1,6.2846058E1,2.1859068E2,8.179801E1,2.262863E1,7.634528E1,3.625472E2,7.7396083E0,5.4798794E0,4.959988E1,1.0860326E1,1.085636E1,8.533259E0,5.4312798E1,2.0044066E2,1.8150026E1,1.27290325E1,6.9068985E1,1.5154771E1,7.4738593E0,3.0622843E1,4.572244E1],"tree_param":{"num_deleted":"0","num_feature":"17","num_nodes":"41","size_leaf_vector":"1"}},{"base_weights":[1.9006586E-2,-6.674477E-2,1.9675606E-1,-4.6463457E-1,2.3111531E-1,1.4692152E-2,-5.60664E-1,1.430206E-1,3.605497E-1,-3.761364E-1,-6.8524785E-2,-2.0461427E-1,1.6098687E-1,2.7729514E-1,4.6344072E-1,-6.529513E-2,-1.3233534E-1,3.7490297E-2,-4.2724007E-1,1.7206642E-1,-2.7585545E-1,4.9258268E-1,1.8439133E-1,4.973587E-1,2.3783512E-1,1.0960291E-2,-3.401521E-2,-7.691541E-2,-0E0,4.6696463E-3,2.1224694E-2,-7.832073E-2,1.202625E-2,3.0310182E-2,7.288995E-2,3.0768616E-2,-1.3786827E-2,1.9984333E-2,5.35662E-2,-1.5865877E-2,5.358286E-2],"categories":[],"categories_nodes":[],"categories_segments":[],"categories_sizes":[],"default_left":[0,0,0,0,0,0,0,0,0,0,0,0,0,0,0,0,0,0,0,0,0,0,0,0,0,0,0,0,0,0,0,0,0,0,0,0,0,0,0,0,0],"id":11,"left_children":[1,-1,3,5,7,-1,9,11,13,15,-1,17,19,21,23,-1,25,-1,27,29,31,33,35,37,39,-1,-1,-1,-1,-1,-1,-1,-1,-1,-1,-1,-1,-1,-1,-1,-1],"loss_changes":[1.5070786E2,0E0,2.2387035E1,2.9811964E0,1.0545483E1,0E0,6.1089516E-1,3.5120258E0,3.0272293E0,1.1598401E0,0E0,3.7229958E0,2.6079159E0,4.0704117E0,1.0830879E0,0E0,6.5783036E-1,0E0,2.954581E0,2.577919E0,2.833281E0,2.488536E0,6.00431E0,1.4550667E0,2.9674058E0,0E0,0E0,0E0,0E0,0E0,0E0,0E0,0E0,0E0,0E0,0E0,0E0,0E0,0E0,0E0,0E0],"parents":[2147483647,0,0,2,2,3,3,4,4,6,6,7,7,8,8,9,9,11,11,12,12,13,13,14,14,16,16,18,18,19,19,20,20,21,21,22,22,23,23,24,24],"right_children":[2,-1,4,6,8,-1,10,12,14,16,-1,18,20,22,24,-1,26,-1,28,30,32,34,36,38,40,-1,-1,-1,-1,-1,-1,-1,-1,-1,-1,-1,-1,-1,-1,-1,-1],"split_conditions":[1E0,-6.674477E-2,1.89854E-1,3.425E-1,6.082119E-1,1.4692152E-2,1E0,5.4054055E-2,5.9836066E-1,4.45E-1,-6.8524785E-2,3.8804498E-1,1.8181819E-1,4.8E1,1.54E2,-6.529513E-2,4.7E-1,3.7490297E-2,4E0,3.8482264E-1,4.7540984E-1,4.4E-1,5.55E-1,1.7E1,9.313695E-1,1.0960291E-2,-3.401521E-2,-7.691541E-2,-0E0,4.6696463E-3,2.1224694E-2,-7.832073E-2,1.202625E-2,3.0310182E-2,7.288995E-2,3.0768616E-2,-1.3786827E-2,1.9984333E-2,5.35662E-2,-1.5865877E-2,5.358286E-2],"split_indices":[12,0,15,3,15,0,4,9,2,3,0,15,11,8,8,0,3,0,1,15,2,3,3,8,15,0,0,0,0,0,0,0,0,0,0,0,0,0,0,0,0],"split_type":[0,0,0,0,0,0,0,0,0,0,0,0,0,0,0,0,0,0,0,0,0,0,0,0,0,0,0,0,0,0,0,0,0,0,0,0,0,0,0,0,0],"sum_hessian":[1.2334487E3,2.5301346E2,9.804353E2,4.765614E1,9.327792E2,6.2543697E0,4.1401768E1,5.567354E2,3.7604376E2,1.8629887E1,2.2771883E1,2.6574892E1,5.301605E2,2.1043591E2,1.6560786E2,7.746278E0,1.0883608E1,7.0610595E0,1.9513832E1,5.178611E2,1.2299402E1,6.181426E1,1.4862166E2,1.4253159E2,2.3076279E1,5.02498E0,5.858628E0,1.0323659E1,9.190173E0,1.2681812E2,3.91043E2,5.0747957E0,7.224606E0,3.580848E1,2.600578E1,1.07751884E2,4.086977E1,1.7264008E1,1.2526757E2,9.9583025E0,1.3117976E1],"tree_param":{"num_deleted":"0","num_feature":"17","num_nodes":"41","size_leaf_vector":"1"}},{"base_weights":[1.616026E-2,-5.967421E-1,1.03260905E-1,-1.24712195E-2,-6.175392E-1,2.9816123E-2,3.4247535E-1,-6.283498E-1,-2.571137E-2,-6.6770245E-3,2.53933E-1,6.8357915E-2,3.1010535E-1,-4.6596754E-1,-6.514528E-2,-5.113368E-1,1.212987E-2,7.418232E-2,1.7385201E-1,2.4334398E-1,4.3915537E-1,-6.303813E-2,-1.958676E-2,-6.7076564E-1,4.853576E-3,-3.7651682E-1,3.0933203E-2,2.5074118E-1,-2.4674526E-1,1.5120396E-1,4.359255E-1,3.4981573E-1,5.9498113E-2,-3.3124845E-2,-7.717761E-2,-5.7944044E-4,-8.527599E-2,-2.4566515E-3,1.2084014E-2,-2.9292011E-3,4.26784E-2,-7.0621036E-2,2.5751034E-2,3.5593335E-2,-4.517967E-3,4.854987E-2,2.5875533E-3,4.2677045E-2,1.2273055E-2],"categories":[],"categories_nodes":[],"categories_segments":[],"categories_sizes":[],"default_left":[0,0,0,0,0,0,0,0,0,0,0,0,0,0,0,0,0,0,0,0,0,0,0,0,0,0,0,0,0,0,0,0,0,0,0,0,0,0,0,0,0,0,0,0,0,0,0,0,0],"id":12,"left_children":[1,3,5,-1,7,9,11,13,-1,15,17,-1,19,21,-1,23,25,-1,27,29,31,-1,-1,33,-1,35,37,39,41,43,45,47,-1,-1,-1,-1,-1,-1,-1,-1,-1,-1,-1,-1,-1,-1,-1,-1,-1],"loss_changes":[6.447387E1,1.3237762E0,1.854502E1,0E0,3.0886078E-1,6.6600156E0,2.4288502E0,1.0359955E-1,0E0,6.6817946E0,4.232922E0,0E0,1.7957783E0,7.388773E-1,0E0,2.352612E0,4.901115E0,0E0,3.2766552E0,2.599474E0,7.587786E-1,0E0,0E0,3.1634426E-1,0E0,5.369229E0,3.225403E0,4.229272E0,3.8561392E0,4.297677E0,9.2824936E-1,7.890401E-1,0E0,0E0,0E0,0E0,0E0,0E0,0E0,0E0,0E0,0E0,0E0,0E0,0E0,0E0,0E0,0E0,0E0],"parents":[2147483647,0,0,1,1,2,2,4,4,5,5,6,6,7,7,9,9,10,10,12,12,13,13,15,15,16,16,18,18,19,19,20,20,23,23,25,25,26,26,27,27,28,28,29,29,30,30,31,31],"right_children":[2,4,6,-1,8,10,12,14,-1,16,18,-1,20,22,-1,24,26,-1,28,30,32,-1,-1,34,-1,36,38,40,42,44,46,48,-1,-1,-1,-1,-1,-1,-1,-1,-1,-1,-1,-1,-1,-1,-1,-1,-1],"split_conditions":[1.89854E-1,2.4863388E-1,7.1983254E-1,-1.24712195E-2,2.3635319E-1,1.1377563E-1,1.3333334E-1,4.3715847E-1,-2.571137E-2,4.72973E-2,1.5412296E-1,6.8357915E-2,6.639344E-1,1.0274146E-1,-6.514528E-2,4E0,6.666667E-2,7.418232E-2,5.6666666E-1,5E-1,7.692308E-2,-6.303813E-2,-1.958676E-2,3.8804498E-1,4.853576E-3,3E0,3E0,3E-1,4E0,4E0,1.6666667E-1,6.25E-2,5.9498113E-2,-3.3124845E-2,-7.717761E-2,-5.7944044E-4,-8.527599E-2,-2.4566515E-3,1.2084014E-2,-2.9292011E-3,4.26784E-2,-7.0621036E-2,2.5751034E-2,3.5593335E-2,-4.517967E-3,4.854987E-2,2.5875533E-3,4.2677045E-2,1.2273055E-2],"split_indices":[15,2,15,0,14,14,10,2,0,9,14,0,2,15,0,6,10,0,10,10,11,0,0,15,0,5,5,10,1,1,11,11,0,0,0,0,0,0,0,0,0,0,0,0,0,0,0,0,0],"split_type":[0,0,0,0,0,0,0,0,0,0,0,0,0,0,0,0,0,0,0,0,0,0,0,0,0,0,0,0,0,0,0,0,0,0,0,0,0,0,0,0,0,0,0,0,0,0,0,0,0],"sum_hessian":[1.2065035E3,1.4925307E2,1.0572505E3,6.7965937E0,1.4245647E2,8.1007886E2,2.4717165E2,1.37317E2,5.1394606E0,6.9709436E2,1.12984474E2,1.9411655E1,2.2776E2,2.0279268E1,1.17037735E2,2.4295053E1,6.727993E2,1.4589064E1,9.839541E1,1.5251834E2,7.524165E1,1.1546579E1,8.73269E0,1.8895056E1,5.399998E0,2.9925526E1,6.428738E2,8.373031E1,1.4665096E1,1.04719864E2,4.7798477E1,5.029351E1,2.4948143E1,5.5407543E0,1.33543005E1,1.7514128E1,1.2411398E1,3.9725934E2,2.4561446E2,3.2421944E1,5.130837E1,7.567547E0,7.097549E0,5.1122044E1,5.3597816E1,4.22614E1,5.5370803E0,3.657818E1,1.3715335E1],"tree_param":{"num_deleted":"0","num_feature":"17","num_nodes":"49","size_leaf_vector":"1"}},{"base_weights":[-4.0857736E-3,-6.468276E-2,1.6213904E-1,-4.254648E-1,1.9312951E-1,1.6001472E-2,-5.1886076E-1,1.0398557E-1,2.891644E-1,-3.176829E-1,-6.468849E-2,1.2394998E-1,-5.000371E-1,2.0147817E-1,4.7234884E-1,-6.027612E-2,-8.285253E-2,6.9319075E-3,2.0412298E-1,-1.6162075E-2,-8.011515E-2,2.6367715E-1,3.353813E-2,6.958983E-2,3.9306483E-1,9.781387E-3,-2.6473118E-2,1.4642417E-2,-3.8888313E-2,1.5063398E-2,5.77581E-2,-3.1468112E-2,3.01408E-2,1.5759896E-2,-3.5101082E-2,1.3057746E-2,4.6986643E-2],"categories":[],"categories_nodes":[],"categories_segments":[],"categories_sizes":[],"default_left":[0,0,0,0,0,0,0,0,0,0,0,0,0,0,0,0,0,0,0,0,0,0,0,0,0,0,0,0,0,0,0,0,0,0,0,0,0],"id":13,"left_children":[1,-1,3,5,7,-1,9,11,13,15,-1,17,19,21,23,-1,25,27,29,-1,-1,31,33,-1,35,-1,-1,-1,-1,-1,-1,-1,-1,-1,-1,-1,-1],"loss_changes":[1.22245766E2,0E0,1.6605133E1,2.61627E0,7.326874E0,0E0,7.223635E-1,5.452759E0,6.5002975E0,1.0687944E0,0E0,4.0745873E0,1.2458098E0,2.9137535E0,1.9777985E0,0E0,4.0655068E-1,9.921314E0,5.0062246E0,0E0,0E0,4.5815897E0,3.7555912E0,0E0,1.9133091E0,0E0,0E0,0E0,0E0,0E0,0E0,0E0,0E0,0E0,0E0,0E0,0E0],"parents":[2147483647,0,0,2,2,3,3,4,4,6,6,7,7,8,8,9,9,11,11,12,12,13,13,14,14,16,16,17,17,18,18,21,21,22,22,24,24],"right_children":[2,-1,4,6,8,-1,10,12,14,16,-1,18,20,22,24,-1,26,28,30,-1,-1,32,34,-1,36,-1,-1,-1,-1,-1,-1,-1,-1,-1,-1,-1,-1],"split_conditions":[1E0,-6.468276E-2,1.89854E-1,3.9071038E-1,5.6023556E-1,1.6001472E-2,1E0,5.53551E-1,6.284153E-1,4.45E-1,-6.468849E-2,6.2E1,4.054054E-1,5.425E-1,4.2E1,-6.027612E-2,4.7E-1,5.6E-1,5.320124E-1,-1.6162075E-2,-8.011515E-2,4.72973E-2,6.486486E-1,6.958983E-2,6.2E1,9.781387E-3,-2.6473118E-2,1.4642417E-2,-3.8888313E-2,1.5063398E-2,5.77581E-2,-3.1468112E-2,3.01408E-2,1.5759896E-2,-3.5101082E-2,1.3057746E-2,4.6986643E-2],"split_indices":[12,0,15,2,15,0,4,15,2,3,0,8,9,3,8,0,3,3,15,0,0,9,9,0,8,0,0,0,0,0,0,0,0,0,0,0,0],"split_type":[0,0,0,0,0,0,0,0,0,0,0,0,0,0,0,0,0,0,0,0,0,0,0,0,0,0,0,0,0,0,0,0,0,0,0,0,0],"sum_hessian":[1.1417632E3,2.3413672E2,9.076265E2,4.467111E1,8.629554E2,5.900171E0,3.877094E1,4.4915414E2,4.1380127E2,1.6735386E1,2.2035551E1,4.3571313E2,1.3441023E1,2.8163486E2,1.3216641E2,6.6589503E0,1.0076436E1,1.78099E2,2.5761414E2,7.208442E0,6.23258E0,2.0466772E2,7.696712E1,3.2235764E1,9.993065E1,5.0111103E0,5.0653257E0,1.3234203E2,4.5756973E1,2.2680135E2,3.0812788E1,1.1922525E1,1.9274521E2,5.8836018E1,1.81311E1,2.3526293E1,7.640435E1],"tree_param":{"num_deleted":"0","num_feature":"17","num_nodes":"37","size_leaf_vector":"1"}},{"base_weights":[1.625121E-2,-6.338425E-2,1.7474309E-1,-3.9696398E-1,2.014114E-1,6.915293E-3,-4.892538E-1,1.7402115E-1,3.6479414E-1,-3.360085E-1,-6.1626602E-2,1.4014913E-1,2.956485E-1,4.424875E-1,1.7591552E-1,-4.7519523E-1,-4.370884E-3,1.6122201E-2,1.8680061E-1,6.4267375E-2,4.307464E-1,2.0251255E-3,4.9264875E-1,-5.089538E-2,4.7205424E-1,-2.1414025E-2,-6.1807908E-2,-1.5402319E-2,9.820643E-3,3.921836E-2,1.3344417E-2,4.353986E-2,-5.045635E-3,7.239007E-2,3.681229E-2,1.7043954E-2,5.8701694E-2,-4.985704E-2,1.502038E-2,1.7841375E-2,6.111765E-2],"categories":[],"categories_nodes":[],"categories_segments":[],"categories_sizes":[],"default_left":[0,0,0,0,0,0,0,0,0,0,0,0,0,0,0,0,0,0,0,0,0,0,0,0,0,0,0,0,0,0,0,0,0,0,0,0,0,0,0,0,0],"id":14,"left_children":[1,-1,3,5,7,-1,9,11,13,15,-1,17,19,21,23,25,-1,27,29,31,33,-1,35,37,39,-1,-1,-1,-1,-1,-1,-1,-1,-1,-1,-1,-1,-1,-1,-1,-1],"loss_changes":[1.1730029E2,0E0,1.4021692E1,1.8387389E0,3.80159E0,0E0,3.6941528E-1,3.014822E0,1.6843166E0,6.676233E-1,0E0,3.3966799E0,4.9979057E0,1.7821159E0,2.6360772E0,2.317779E-1,0E0,2.2893767E0,4.5945044E0,2.670407E0,1.4979115E0,0E0,2.1818542E0,2.1243894E0,5.017085E-1,0E0,0E0,0E0,0E0,0E0,0E0,0E0,0E0,0E0,0E0,0E0,0E0,0E0,0E0,0E0,0E0],"parents":[2147483647,0,0,2,2,3,3,4,4,6,6,7,7,8,8,9,9,11,11,12,12,13,13,14,14,15,15,17,17,18,18,19,19,20,20,22,22,23,23,24,24],"right_children":[2,-1,4,6,8,-1,10,12,14,16,-1,18,20,22,24,26,-1,28,30,32,34,-1,36,38,40,-1,-1,-1,-1,-1,-1,-1,-1,-1,-1,-1,-1,-1,-1,-1,-1],"split_conditions":[1E0,-6.338425E-2,1.6605002E-1,3.425E-1,1.09012015E-1,6.915293E-3,1E0,7.797624E-1,6.666667E-2,1.14E2,-6.1626602E-2,1E0,5.575E-1,3.4972677E-1,4E0,9.1343455E-2,-4.370884E-3,2.972973E-1,4.1E1,2.925E-1,5.9562844E-1,2.0251255E-3,1.9480255E-1,9.090909E-2,1E-1,-2.1414025E-2,-6.1807908E-2,-1.5402319E-2,9.820643E-3,3.921836E-2,1.3344417E-2,4.353986E-2,-5.045635E-3,7.239007E-2,3.681229E-2,1.7043954E-2,5.8701694E-2,-4.985704E-2,1.502038E-2,1.7841375E-2,6.111765E-2],"split_indices":[12,0,15,3,14,0,4,15,11,8,0,0,3,2,1,15,0,9,8,3,2,0,14,11,11,0,0,0,0,0,0,0,0,0,0,0,0,0,0,0,0],"split_type":[0,0,0,0,0,0,0,0,0,0,0,0,0,0,0,0,0,0,0,0,0,0,0,0,0,0,0,0,0,0,0,0,0,0,0,0,0,0,0,0,0],"sum_hessian":[1.1368263E3,2.2211922E2,9.147071E2,3.9980583E1,8.747265E2,6.470081E0,3.35105E1,7.514304E2,1.2329611E2,1.7195843E1,1.631466E1,5.900748E2,1.613556E2,8.603451E1,3.7261604E1,1.0993263E1,6.20258E0,1.6223866E2,4.2783615E2,6.029859E1,1.0105701E2,9.49626E0,7.6538246E1,2.137844E1,1.5883165E1,5.020027E0,5.973236E0,5.2116386E1,1.1012227E2,8.653104E1,3.413051E2,1.3783958E1,4.6514633E1,1.5648154E1,8.540885E1,1.8214108E1,5.8324142E1,6.3222547E0,1.5056187E1,6.0708485E0,9.812316E0],"tree_param":{"num_deleted":"0","num_feature":"17","num_nodes":"41","size_leaf_vector":"1"}},{"base_weights":[-1.9904173E-3,-6.2292267E-2,1.3997959E-1,-3.9197627E-1,1.6160509E-1,-4.651824E-1,1.5887842E-3,-4.679112E-2,1.8878797E-1,-6.1924E-2,-2.195979E-1,2.1913047E-1,-3.03406E-1,1.1849778E-1,2.828702E-1,6.2655904E-3,-4.0285163E-2,8.183987E-2,7.4830174E-2,-8.646283E-2,-9.927013E-2,9.452179E-2,4.1684E-1,3.664621E-1,1.275168E-1,2.376547E-2,-4.022536E-2,2.667897E-2,-3.7283536E-2,1.4824154E-2,-1.0128743E-2,6.874507E-2,-3.8792219E-3,-1.1863782E-3,4.018533E-2,-2.2534877E-3,3.85449E-2],"categories":[],"categories_nodes":[],"categories_segments":[],"categories_sizes":[],"default_left":[0,0,0,0,0,0,0,0,0,0,0,0,0,0,0,0,0,0,0,0,0,0,0,0,0,0,0,0,0,0,0,0,0,0,0,0,0],"id":15,"left_children":[1,-1,3,5,7,9,-1,11,13,-1,15,17,19,21,23,-1,-1,25,-1,-1,27,29,31,33,35,-1,-1,-1,-1,-1,-1,-1,-1,-1,-1,-1,-1],"loss_changes":[9.9055336E1,0E0,1.0554733E1,1.121726E0,5.0034122E0,9.381175E-1,0E0,7.0232654E0,5.073656E0,0E0,7.626207E-1,3.5168855E0,5.824346E0,3.112874E0,4.2090454E0,0E0,0E0,3.1932795E0,0E0,0E0,4.086239E0,4.3968973E0,4.124574E0,2.9169712E0,4.6092057E0,0E0,0E0,0E0,0E0,0E0,0E0,0E0,0E0,0E0,0E0,0E0,0E0],"parents":[2147483647,0,0,2,2,3,3,4,4,5,5,7,7,8,8,10,10,11,11,12,12,13,13,14,14,17,17,20,20,21,21,22,22,23,23,24,24],"right_children":[2,-1,4,6,8,10,-1,12,14,-1,16,18,20,22,24,-1,-1,26,-1,-1,28,30,32,34,36,-1,-1,-1,-1,-1,-1,-1,-1,-1,-1,-1,-1],"split_conditions":[1E0,-6.2292267E-2,1.6605002E-1,7.702703E-1,3.4153005E-1,9.773527E-2,1.5887842E-3,6.4E1,5.745991E-1,-6.1924E-2,4.6721312E-1,5E1,1.04E2,8.378378E-1,9.544496E-1,6.2655904E-3,-4.0285163E-2,3E0,7.4830174E-2,-8.646283E-2,3E0,6.621622E-1,8.716216E-1,4.0983605E-1,6.557377E-1,2.376547E-2,-4.022536E-2,2.667897E-2,-3.7283536E-2,1.4824154E-2,-1.0128743E-2,6.874507E-2,-3.8792219E-3,-1.1863782E-3,4.018533E-2,-2.2534877E-3,3.85449E-2],"split_indices":[12,0,15,9,2,15,0,8,15,0,2,8,8,9,15,0,0,0,0,0,5,9,9,2,2,0,0,0,0,0,0,0,0,0,0,0,0],"split_type":[0,0,0,0,0,0,0,0,0,0,0,0,0,0,0,0,0,0,0,0,0,0,0,0,0,0,0,0,0,0,0,0,0,0,0,0,0],"sum_hessian":[1.1211287E3,2.0813371E2,9.1299493E2,3.4816235E1,8.7817865E2,2.9606852E1,5.209384E0,1.0082312E2,7.773555E2,1.7008537E1,1.2598312E1,4.9394062E1,5.142906E1,4.4683853E2,3.3051703E2,5.003754E0,7.5945582E0,4.028577E1,9.108292E0,1.2723486E1,3.8705578E1,4.151291E2,3.1709446E1,2.1358795E2,1.1692908E2,3.1017752E1,9.268018E0,1.6408482E1,2.2297094E1,3.2634955E2,8.877952E1,1.9712448E1,1.1996998E1,1.8086397E1,1.9550154E2,7.4255806E1,4.2673275E1],"tree_param":{"num_deleted":"0","num_feature":"17","num_nodes":"37","size_leaf_vector":"1"}},{"base_weights":[-1.5659805E-2,-6.136216E-2,1.2117503E-1,-4.5280218E-1,1.4691459E-1,-5.2480155E-1,-6.3144537E-3,-9.603557E-3,1.848271E-1,-2.9011875E-1,-6.278025E-2,-6.928267E-2,5.017582E-2,-0E0,2.1441904E-1,-5.4318365E-2,-0E0,-9.841012E-2,2.1394417E-1,4.7141847E-1,-1.00607686E-1,1.8822809E-1,4.4248262E-1,-3.3011794E-2,2.875794E-2,-3.248869E-2,3.505129E-2,7.504233E-2,1.370906E-2,-4.0644806E-2,1.2958856E-2,2.535137E-2,7.3278653E-3,5.389095E-2,1.919928E-2],"categories":[],"categories_nodes":[],"categories_segments":[],"categories_sizes":[],"default_left":[0,0,0,0,0,0,0,0,0,0,0,0,0,0,0,0,0,0,0,0,0,0,0,0,0,0,0,0,0,0,0,0,0,0,0],"id":16,"left_children":[1,-1,3,5,7,9,-1,11,13,15,-1,-1,17,19,21,-1,-1,23,25,27,29,31,33,-1,-1,-1,-1,-1,-1,-1,-1,-1,-1,-1,-1],"loss_changes":[8.581285E1,0E0,1.2637211E1,9.372978E-1,4.8688793E0,4.6601963E-1,0E0,6.6254673E0,3.605751E0,8.7491447E-1,0E0,0E0,3.627569E0,4.392765E0,3.2445145E0,0E0,0E0,7.0594525E0,5.334732E0,1.3271589E0,5.4659624E0,3.7860966E0,1.208519E0,0E0,0E0,0E0,0E0,0E0,0E0,0E0,0E0,0E0,0E0,0E0,0E0],"parents":[2147483647,0,0,2,2,3,3,4,4,5,5,7,7,8,8,9,9,12,12,13,13,14,14,17,17,18,18,19,19,20,20,21,21,22,22],"right_children":[2,-1,4,6,8,10,-1,12,14,16,-1,-1,18,20,22,-1,-1,24,26,28,30,32,34,-1,-1,-1,-1,-1,-1,-1,-1,-1,-1,-1,-1],"split_conditions":[1E0,-6.136216E-2,1.89854E-1,7.702703E-1,1.9594595E-1,2.7027026E-1,-6.3144537E-3,1.4E1,3.7917694E-1,8.2E1,-6.278025E-2,-6.928267E-2,9.3E1,3.108108E-1,6.85E-1,-5.4318365E-2,-0E0,5.425E-1,4.1065976E-1,2E0,4E0,1.12E2,6.666667E-2,-3.3011794E-2,2.875794E-2,-3.248869E-2,3.505129E-2,7.504233E-2,1.370906E-2,-4.0644806E-2,1.2958856E-2,2.535137E-2,7.3278653E-3,5.389095E-2,1.919928E-2],"split_indices":[12,0,15,9,9,9,0,8,15,8,0,0,8,9,3,0,0,3,15,0,1,8,11,0,0,0,0,0,0,0,0,0,0,0,0],"split_type":[0,0,0,0,0,0,0,0,0,0,0,0,0,0,0,0,0,0,0,0,0,0,0,0,0,0,0,0,0,0,0,0,0,0,0],"sum_hessian":[1.0462643E3,1.9432399E2,8.5194025E2,3.5686028E1,8.162542E2,2.9611135E1,6.074891E0,1.5879471E2,6.5745953E2,1.0492342E1,1.9118795E1,1.2058643E1,1.4673607E2,9.077865E1,5.6668085E2,5.2437615E0,5.24858E0,7.682328E1,6.991279E1,1.5282174E1,7.5496475E1,5.1033725E2,5.6343616E1,4.8258026E1,2.8565258E1,1.370978E1,5.6203007E1,7.488858E0,7.7933164E0,3.2279053E1,4.3217426E1,3.2415677E2,1.8618045E2,3.956305E1,1.6780565E1],"tree_param":{"num_deleted":"0","num_feature":"17","num_nodes":"35","size_leaf_vector":"1"}},{"base_weights":[-1.514838E-2,-6.0532637E-2,1.2171009E-1,-5.203091E-1,1.3844623E-1,-5.9880275E-2,-2.1826996E-2,-7.222827E-2,1.4677283E-1,8.5069284E-2,2.4459887E-1,1.7580922E-1,3.4214717E-3,1.449614E-1,4.5906627E-1,-1.8348949E-2,2.2816064E-2,9.324981E-3,-2.705481E-2,1.8370355E-2,-7.462715E-2,7.183987E-2,3.4166694E-2],"categories":[],"categories_nodes":[],"categories_segments":[],"categories_sizes":[],"default_left":[0,0,0,0,0,0,0,0,0,0,0,0,0,0,0,0,0,0,0,0,0,0,0],"id":17,"left_children":[1,-1,3,5,7,-1,-1,-1,9,11,13,15,17,19,21,-1,-1,-1,-1,-1,-1,-1,-1],"loss_changes":[8.09451E1,0E0,8.769231E0,2.786498E-1,5.733761E0,0E0,0E0,0E0,4.6943817E0,3.5711658E0,6.3497524E0,4.35159E0,6.323433E0,7.287772E0,2.5519161E0,0E0,0E0,0E0,0E0,0E0,0E0,0E0,0E0],"parents":[2147483647,0,0,2,2,3,3,4,4,8,8,9,9,10,10,11,11,12,12,13,13,14,14],"right_children":[2,-1,4,6,8,-1,-1,-1,10,12,14,16,18,20,22,-1,-1,-1,-1,-1,-1,-1,-1],"split_conditions":[1E0,-6.0532637E-2,1.0274146E-1,1E-1,3.3333335E-2,-5.9880275E-2,-2.1826996E-2,-7.222827E-2,6.106342E-1,4.1216215E-1,6.013514E-1,2.4E1,5.32371E-1,5.878378E-1,4.8E1,-1.8348949E-2,2.2816064E-2,9.324981E-3,-2.705481E-2,1.8370355E-2,-7.462715E-2,7.183987E-2,3.4166694E-2],"split_indices":[12,0,15,11,10,0,0,0,15,9,9,8,15,9,8,0,0,0,0,0,0,0,0],"split_type":[0,0,0,0,0,0,0,0,0,0,0,0,0,0,0,0,0,0,0,0,0,0,0],"sum_hessian":[9.9964636E2,1.8766818E2,8.119782E2,1.9712631E1,7.9226556E2,1.4603795E1,5.1088367E0,6.654275E0,7.856113E2,4.8352243E2,3.0208887E2,2.2788387E2,2.5563857E2,2.0772566E2,9.4363205E1,2.8419535E1,1.9946432E2,1.9328838E2,6.235018E1,1.9994029E2,7.7853775E0,2.7545267E1,6.681794E1],"tree_param":{"num_deleted":"0","num_feature":"17","num_nodes":"23","size_leaf_vector":"1"}},{"base_weights":[-6.152999E-3,-5.9643306E-2,1.1781828E-1,-4.2386097E-1,1.3903144E-1,5.4033534E-3,-5.420544E-1,7.451279E-2,3.0507472E-1,-2.4081543E-2,-6.0801025E-2,1.0845777E-1,-1.695851E-1,2.277352E-1,5.9658104E-1,9.300133E-2,4.3876004E-1,-2.4443471E-1,6.41083E-2,2.7614298E-1,-1.3814704E-3,7.042356E-2,1.8632172E-1,1.5759692E-2,1.5885312E-3,7.2091125E-4,6.1393846E-2,2.3953283E-4,-4.5423184E-2,6.4147495E-2,2.4609072E-2,-4.7463547E-2,4.592834E-2,-2.9201357E-2,6.48282E-2],"categories":[],"categories_nodes":[],"categories_segments":[],"categories_sizes":[],"default_left":[0,0,0,0,0,0,0,0,0,0,0,0,0,0,0,0,0,0,0,0,0,0,0,0,0,0,0,0,0,0,0,0,0,0,0],"id":18,"left_children":[1,-1,3,5,7,-1,9,11,13,-1,-1,15,17,19,21,23,25,27,-1,29,31,-1,33,-1,-1,-1,-1,-1,-1,-1,-1,-1,-1,-1,-1],"loss_changes":[7.425459E1,0E0,9.659146E0,1.8657227E0,8.587879E0,0E0,2.7795935E-1,4.8442183E0,4.8577766E0,0E0,0E0,2.5246649E0,4.4388304E0,2.0223742E0,1.8255768E0,2.4287643E0,1.6246843E0,3.46617E0,0E0,1.3873882E0,7.196371E0,0E0,2.6956885E0,0E0,0E0,0E0,0E0,0E0,0E0,0E0,0E0,0E0,0E0,0E0,0E0],"parents":[2147483647,0,0,2,2,3,3,4,4,6,6,7,7,8,8,11,11,12,12,13,13,14,14,15,15,16,16,17,17,19,19,20,20,22,22],"right_children":[2,-1,4,6,8,-1,10,12,14,-1,-1,16,18,20,22,24,26,28,-1,30,32,-1,34,-1,-1,-1,-1,-1,-1,-1,-1,-1,-1,-1,-1],"split_conditions":[1E0,-5.9643306E-2,1.6605002E-1,3.425E-1,5E-1,5.4033534E-3,1.6666667E-1,4.6666667E-1,8.1606174E-1,-2.4081543E-2,-6.0801025E-2,7.7E-1,6.625E-1,7.7449754E-2,4E0,3E-1,5E1,1E0,6.41083E-2,2.4804717E-1,2.6241595E-1,7.042356E-2,6.2E1,1.5759692E-2,1.5885312E-3,7.2091125E-4,6.1393846E-2,2.3953283E-4,-4.5423184E-2,6.4147495E-2,2.4609072E-2,-4.7463547E-2,4.592834E-2,-2.9201357E-2,6.48282E-2],"split_indices":[12,0,15,3,10,0,10,10,15,0,0,3,3,14,0,10,8,4,0,15,14,0,8,0,0,0,0,0,0,0,0,0,0,0,0],"split_type":[0,0,0,0,0,0,0,0,0,0,0,0,0,0,0,0,0,0,0,0,0,0,0,0,0,0,0,0,0,0,0,0,0,0,0],"sum_hessian":[1.0121007E3,1.7514697E2,8.3695374E2,3.0648464E1,8.063053E2,6.0169096E0,2.4631556E1,5.8215216E2,2.2415312E2,5.5321207E0,1.9099434E1,5.119274E2,7.022479E1,1.788316E2,4.5321514E1,4.905562E2,2.1371172E1,6.5041306E1,5.183483E0,1.4782942E2,3.1002186E1,3.5140205E1,1.0181308E1,2.656752E2,2.2488101E2,6.635835E0,1.4735337E1,3.01184E1,3.4922905E1,9.436852E0,1.3839256E2,1.5384256E1,1.56179285E1,5.0763893E0,5.1049185E0],"tree_param":{"num_deleted":"0","num_feature":"17","num_nodes":"35","size_leaf_vector":"1"}},{"base_weights":[-1.6818201E-2,-5.8933556E-2,9.715671E-2,-4.2076502E-2,1.2105295E-1,2.2895789E-1,-1.1756091E-1,8.9154996E-2,2.362178E-1,5.6926664E-2,2.227543E-2,-1.5021507E-1,3.3052783E-2,3.644204E-1,6.3395165E-2,-4.154136E-2,2.792462E-1,2.2122007E-2,-9.492451E-3,-9.479927E-2,-5.495909E-2,6.793173E-2,5.5644906E-1,1.1413729E-1,-1.6195884E-1,5.775709E-1,1.3900518E-1,-3.10036E-2,2.5920556E-3,-2.3976652E-2,6.5576755E-2,6.5750234E-2,1.2443396E-2,5.5674496E-3,2.4284687E-2,1.189819E-3,-5.1948827E-2,6.367355E-2,1.4721221E-2,-1.8999806E-3,3.666949E-2],"categories":[],"categories_nodes":[],"categories_segments":[],"categories_sizes":[],"default_left":[0,0,0,0,0,0,0,0,0,0,0,0,0,0,0,0,0,0,0,0,0,0,0,0,0,0,0,0,0,0,0,0,0,0,0,0,0,0,0,0,0],"id":19,"left_children":[1,-1,3,5,7,9,11,13,15,-1,17,19,-1,21,23,-1,25,-1,-1,27,-1,29,31,33,35,37,39,-1,-1,-1,-1,-1,-1,-1,-1,-1,-1,-1,-1,-1,-1],"loss_changes":[6.439295E1,0E0,2.7490387E0,2.482925E0,2.5279684E0,1.7793838E0,1.4256192E0,3.8525505E0,4.3401575E0,0E0,4.4395497E-1,1.8685713E0,0E0,2.5612116E0,5.8096523E0,0E0,5.810732E0,0E0,0E0,2.1201642E0,0E0,3.7655046E0,1.0635557E0,3.0768151E0,5.8504486E0,9.7439766E-1,3.5850697E0,0E0,0E0,0E0,0E0,0E0,0E0,0E0,0E0,0E0,0E0,0E0,0E0,0E0,0E0],"parents":[2147483647,0,0,2,2,3,3,4,4,5,5,6,6,7,7,8,8,10,10,11,11,13,13,14,14,16,16,19,19,21,21,22,22,23,23,24,24,25,25,26,26],"right_children":[2,-1,4,6,8,10,12,14,16,-1,18,20,-1,22,24,-1,26,-1,-1,28,-1,30,32,34,36,38,40,-1,-1,-1,-1,-1,-1,-1,-1,-1,-1,-1,-1,-1,-1],"split_conditions":[1E0,-5.8933556E-2,1.6216215E-1,3.7E1,1.43E2,4.275E-1,7.1E-1,2.2297297E-1,3.2786885E-1,5.6926664E-2,8.783784E-2,1.67E2,3.3052783E-2,1E0,1.12E2,-4.154136E-2,4.175E-1,2.2122007E-2,-9.492451E-3,7.3E1,-5.495909E-2,2.0945945E-1,2.0945945E-1,7E1,7.297297E-1,5.5555556E-2,6.175E-1,-3.10036E-2,2.5920556E-3,-2.3976652E-2,6.5576755E-2,6.5750234E-2,1.2443396E-2,5.5674496E-3,2.4284687E-2,1.189819E-3,-5.1948827E-2,6.367355E-2,1.4721221E-2,-1.8999806E-3,3.666949E-2],"split_indices":[12,0,9,8,8,3,3,9,2,0,9,8,0,13,8,0,3,0,0,8,0,9,9,8,9,11,3,0,0,0,0,0,0,0,0,0,0,0,0,0,0],"split_type":[0,0,0,0,0,0,0,0,0,0,0,0,0,0,0,0,0,0,0,0,0,0,0,0,0,0,0,0,0,0,0,0,0,0,0,0,0,0,0,0,0],"sum_hessian":[9.8419385E2,1.6285406E2,8.213398E2,1.1959062E2,7.017492E2,2.5319704E1,9.427092E1,5.5160895E2,1.5014024E2,8.721447E0,1.6598259E1,8.869525E1,5.57567E0,4.574598E1,5.0586298E2,8.619921E0,1.4152032E2,6.1405287E0,1.0457729E1,7.919432E1,9.500929E0,1.8718884E1,2.7027094E1,4.1365833E2,9.220465E1,4.4029037E1,9.749129E1,2.819117E1,5.100315E1,1.2564234E1,6.15465E0,2.1293005E1,5.73409E0,2.859726E2,1.2768572E2,6.2499725E1,2.9704926E1,3.8081753E1,5.9472833E0,5.7834476E1,3.965681E1],"tree_param":{"num_deleted":"0","num_feature":"17","num_nodes":"41","size_leaf_vector":"1"}},{"base_weights":[-1.10803405E-2,-5.8333516E-2,9.9281505E-2,-6.868971E-2,1.062197E-1,4.7627047E-1,9.268331E-2,-3.2146614E-2,7.462437E-1,6.704853E-2,2.5865126E-1,8.4164254E-2,3.6426406E-2,5.9848037E-2,7.224916E-2,4.4973326E-1,-1.6368456E-2,-6.886346E-3,9.971123E-3,5.3755064E-2,2.1854E-3,-1.8100858E-2,4.582939E-2],"categories":[],"categories_nodes":[],"categories_segments":[],"categories_sizes":[],"default_left":[0,0,0,0,0,0,0,0,0,0,0,0,0,0,0,0,0,0,0,0,0,0,0],"id":20,"left_children":[1,-1,3,-1,5,7,9,-1,11,13,15,-1,-1,17,-1,19,21,-1,-1,-1,-1,-1,-1],"loss_changes":[6.1810623E1,0E0,4.4864893E0,0E0,3.974389E0,6.3575945E0,3.2958145E0,0E0,3.5523033E-1,3.1021776E0,5.533902E0,0E0,0E0,3.482853E0,0E0,2.2550116E0,3.456664E0,0E0,0E0,0E0,0E0,0E0,0E0],"parents":[2147483647,0,0,2,2,4,4,5,5,6,6,8,8,9,9,10,10,13,13,15,15,16,16],"right_children":[2,-1,4,-1,6,8,10,-1,12,14,16,-1,-1,18,-1,20,22,-1,-1,-1,-1,-1,-1],"split_conditions":[1E0,-5.8333516E-2,3.3333335E-2,-6.868971E-2,6.666667E-2,5.10929E-1,6E-1,-3.2146614E-2,6.229508E-1,8.783784E-1,5.608108E-1,8.4164254E-2,3.6426406E-2,1E0,7.224916E-2,6.55E-1,1E-1,-6.886346E-3,9.971123E-3,5.3755064E-2,2.1854E-3,-1.8100858E-2,4.582939E-2],"split_indices":[12,0,10,0,10,2,10,0,2,9,9,0,0,6,0,3,11,0,0,0,0,0,0],"split_type":[0,0,0,0,0,0,0,0,0,0,0,0,0,0,0,0,0,0,0,0,0,0,0],"sum_hessian":[9.760281E2,1.5725266E2,8.187754E2,6.1792464E0,8.125962E2,2.7208635E1,7.853875E2,6.7378893E0,2.0470747E1,6.8204755E2,1.0333999E2,1.5207528E1,5.263219E0,6.758666E2,6.1809797E0,6.0814667E1,4.2525326E1,1.5905829E2,5.168083E2,5.0052032E1,1.0762632E1,3.2189495E1,1.033583E1],"tree_param":{"num_deleted":"0","num_feature":"17","num_nodes":"23","size_leaf_vector":"1"}}]},"name":"gbtree"},"learner_model_param":{"base_score":"[-5.4378115E-9]","boost_from_average":"1","num_class":"0","num_feature":"17","num_target":"1"},"objective":{"lambdarank_param":{"lambdarank_bias_norm":"1","lambdarank_normalization":"1","lambdarank_num_pair_per_sample":"4294967295","lambdarank_pair_method":"topk","lambdarank_score_normalization":"1","lambdarank_unbiased":"0","ndcg_exp_gain":"1"},"name":"rank:pairwise"}},"version":[3,2,0]}